digraph Tree {
node [shape=box, style="filled, rounded", color="black", fontname=helvetica] ;
edge [fontname=helvetica] ;
0 [label=<SOD1_N &le; 0.4235<br/>gini = 0.8733<br/>samples = 852<br/>value = [107, 108, 106, 82, 122, 102, 124, 101]<br/>class = 6>, fillcolor="#d739e501"] ;
1 [label=<DYRK1A_N &le; 0.5514<br/>gini = 0.7485<br/>samples = 413<br/>value = [0, 3, 106, 82, 0, 0, 123, 99]<br/>class = 6>, fillcolor="#d739e50e"] ;
0 -> 1 [labeldistance=2.5, labelangle=45, headlabel="True"] ;
2 [label=<S6_N &le; 0.4367<br/>gini = 0.7274<br/>samples = 280<br/>value = [0, 3, 37, 57, 0, 0, 92, 91]<br/>class = 6>, fillcolor="#d739e501"] ;
1 -> 2 ;
3 [label=<S6_N &le; 0.2671<br/>gini = 0.6367<br/>samples = 119<br/>value = [0, 0, 22, 2, 0, 0, 39, 56]<br/>class = 7>, fillcolor="#e5397236"] ;
2 -> 3 ;
4 [label=<gini = 0.0<br/>samples = 10<br/>value = [0, 0, 0, 0, 0, 0, 10, 0]<br/>class = 6>, fillcolor="#d739e5ff"] ;
3 -> 4 ;
5 [label=<pERK_N &le; 0.4902<br/>gini = 0.6242<br/>samples = 109<br/>value = [0, 0, 22, 2, 0, 0, 29, 56]<br/>class = 7>, fillcolor="#e5397256"] ;
3 -> 5 ;
6 [label=<CDK5_N &le; 0.2398<br/>gini = 0.2949<br/>samples = 29<br/>value = [0, 0, 0, 1, 0, 0, 4, 24]<br/>class = 7>, fillcolor="#e53972cc"] ;
5 -> 6 ;
7 [label=<ITSN1_N &le; 0.4807<br/>gini = 0.4444<br/>samples = 3<br/>value = [0, 0, 0, 1, 0, 0, 2, 0]<br/>class = 6>, fillcolor="#d739e57f"] ;
6 -> 7 ;
8 [label=<gini = 0.0<br/>samples = 2<br/>value = [0, 0, 0, 0, 0, 0, 2, 0]<br/>class = 6>, fillcolor="#d739e5ff"] ;
7 -> 8 ;
9 [label=<gini = 0.0<br/>samples = 1<br/>value = [0, 0, 0, 1, 0, 0, 0, 0]<br/>class = 3>, fillcolor="#39e5acff"] ;
7 -> 9 ;
10 [label=<S6_N &le; 0.278<br/>gini = 0.142<br/>samples = 26<br/>value = [0, 0, 0, 0, 0, 0, 2, 24]<br/>class = 7>, fillcolor="#e53972ea"] ;
6 -> 10 ;
11 [label=<gini = 0.0<br/>samples = 1<br/>value = [0, 0, 0, 0, 0, 0, 1, 0]<br/>class = 6>, fillcolor="#d739e5ff"] ;
10 -> 11 ;
12 [label=<SOD1_N &le; 0.3295<br/>gini = 0.0768<br/>samples = 25<br/>value = [0, 0, 0, 0, 0, 0, 1, 24]<br/>class = 7>, fillcolor="#e53972f4"] ;
10 -> 12 ;
13 [label=<gini = 0.0<br/>samples = 22<br/>value = [0, 0, 0, 0, 0, 0, 0, 22]<br/>class = 7>, fillcolor="#e53972ff"] ;
12 -> 13 ;
14 [label=<SOD1_N &le; 0.3387<br/>gini = 0.4444<br/>samples = 3<br/>value = [0, 0, 0, 0, 0, 0, 1, 2]<br/>class = 7>, fillcolor="#e539727f"] ;
12 -> 14 ;
15 [label=<gini = 0.0<br/>samples = 1<br/>value = [0, 0, 0, 0, 0, 0, 1, 0]<br/>class = 6>, fillcolor="#d739e5ff"] ;
14 -> 15 ;
16 [label=<gini = 0.0<br/>samples = 2<br/>value = [0, 0, 0, 0, 0, 0, 0, 2]<br/>class = 7>, fillcolor="#e53972ff"] ;
14 -> 16 ;
17 [label=<CaNA_N &le; 1.3726<br/>gini = 0.6666<br/>samples = 80<br/>value = [0, 0, 22, 1, 0, 0, 25, 32]<br/>class = 7>, fillcolor="#e5397220"] ;
5 -> 17 ;
18 [label=<CDK5_N &le; 0.2243<br/>gini = 0.4063<br/>samples = 24<br/>value = [0, 0, 4, 1, 0, 0, 1, 18]<br/>class = 7>, fillcolor="#e53972b2"] ;
17 -> 18 ;
19 [label=<gini = 0.0<br/>samples = 4<br/>value = [0, 0, 4, 0, 0, 0, 0, 0]<br/>class = 2>, fillcolor="#47e539ff"] ;
18 -> 19 ;
20 [label=<pGSK3B_N &le; 0.1466<br/>gini = 0.185<br/>samples = 20<br/>value = [0, 0, 0, 1, 0, 0, 1, 18]<br/>class = 7>, fillcolor="#e53972e4"] ;
18 -> 20 ;
21 [label=<gini = 0.0<br/>samples = 1<br/>value = [0, 0, 0, 1, 0, 0, 0, 0]<br/>class = 3>, fillcolor="#39e5acff"] ;
20 -> 21 ;
22 [label=<pGSK3B_N &le; 0.1822<br/>gini = 0.0997<br/>samples = 19<br/>value = [0, 0, 0, 0, 0, 0, 1, 18]<br/>class = 7>, fillcolor="#e53972f1"] ;
20 -> 22 ;
23 [label=<gini = 0.0<br/>samples = 18<br/>value = [0, 0, 0, 0, 0, 0, 0, 18]<br/>class = 7>, fillcolor="#e53972ff"] ;
22 -> 23 ;
24 [label=<gini = 0.0<br/>samples = 1<br/>value = [0, 0, 0, 0, 0, 0, 1, 0]<br/>class = 6>, fillcolor="#d739e5ff"] ;
22 -> 24 ;
25 [label=<pNUMB_N &le; 0.4415<br/>gini = 0.6505<br/>samples = 56<br/>value = [0, 0, 18, 0, 0, 0, 24, 14]<br/>class = 6>, fillcolor="#d739e528"] ;
17 -> 25 ;
26 [label=<BRAF_N &le; 0.3378<br/>gini = 0.657<br/>samples = 44<br/>value = [0, 0, 18, 0, 0, 0, 12, 14]<br/>class = 2>, fillcolor="#47e53922"] ;
25 -> 26 ;
27 [label=<gini = 0.0<br/>samples = 9<br/>value = [0, 0, 0, 0, 0, 0, 0, 9]<br/>class = 7>, fillcolor="#e53972ff"] ;
26 -> 27 ;
28 [label=<CDK5_N &le; 0.298<br/>gini = 0.5976<br/>samples = 35<br/>value = [0, 0, 18, 0, 0, 0, 12, 5]<br/>class = 2>, fillcolor="#47e53943"] ;
26 -> 28 ;
29 [label=<CaNA_N &le; 1.3965<br/>gini = 0.5319<br/>samples = 19<br/>value = [0, 0, 4, 0, 0, 0, 12, 3]<br/>class = 6>, fillcolor="#d739e588"] ;
28 -> 29 ;
30 [label=<gini = 0.0<br/>samples = 3<br/>value = [0, 0, 0, 0, 0, 0, 0, 3]<br/>class = 7>, fillcolor="#e53972ff"] ;
29 -> 30 ;
31 [label=<pNUMB_N &le; 0.3195<br/>gini = 0.375<br/>samples = 16<br/>value = [0, 0, 4, 0, 0, 0, 12, 0]<br/>class = 6>, fillcolor="#d739e5aa"] ;
29 -> 31 ;
32 [label=<gini = 0.0<br/>samples = 3<br/>value = [0, 0, 3, 0, 0, 0, 0, 0]<br/>class = 2>, fillcolor="#47e539ff"] ;
31 -> 32 ;
33 [label=<pERK_N &le; 0.551<br/>gini = 0.142<br/>samples = 13<br/>value = [0, 0, 1, 0, 0, 0, 12, 0]<br/>class = 6>, fillcolor="#d739e5ea"] ;
31 -> 33 ;
34 [label=<pERK_N &le; 0.526<br/>gini = 0.5<br/>samples = 2<br/>value = [0, 0, 1, 0, 0, 0, 1, 0]<br/>class = 2>, fillcolor="#47e53900"] ;
33 -> 34 ;
35 [label=<gini = 0.0<br/>samples = 1<br/>value = [0, 0, 0, 0, 0, 0, 1, 0]<br/>class = 6>, fillcolor="#d739e5ff"] ;
34 -> 35 ;
36 [label=<gini = 0.0<br/>samples = 1<br/>value = [0, 0, 1, 0, 0, 0, 0, 0]<br/>class = 2>, fillcolor="#47e539ff"] ;
34 -> 36 ;
37 [label=<gini = 0.0<br/>samples = 11<br/>value = [0, 0, 0, 0, 0, 0, 11, 0]<br/>class = 6>, fillcolor="#d739e5ff"] ;
33 -> 37 ;
38 [label=<SOD1_N &le; 0.3445<br/>gini = 0.2188<br/>samples = 16<br/>value = [0, 0, 14, 0, 0, 0, 0, 2]<br/>class = 2>, fillcolor="#47e539db"] ;
28 -> 38 ;
39 [label=<pERK_N &le; 0.5132<br/>gini = 0.1244<br/>samples = 15<br/>value = [0, 0, 14, 0, 0, 0, 0, 1]<br/>class = 2>, fillcolor="#47e539ed"] ;
38 -> 39 ;
40 [label=<gini = 0.0<br/>samples = 1<br/>value = [0, 0, 0, 0, 0, 0, 0, 1]<br/>class = 7>, fillcolor="#e53972ff"] ;
39 -> 40 ;
41 [label=<gini = 0.0<br/>samples = 14<br/>value = [0, 0, 14, 0, 0, 0, 0, 0]<br/>class = 2>, fillcolor="#47e539ff"] ;
39 -> 41 ;
42 [label=<gini = 0.0<br/>samples = 1<br/>value = [0, 0, 0, 0, 0, 0, 0, 1]<br/>class = 7>, fillcolor="#e53972ff"] ;
38 -> 42 ;
43 [label=<gini = 0.0<br/>samples = 12<br/>value = [0, 0, 0, 0, 0, 0, 12, 0]<br/>class = 6>, fillcolor="#d739e5ff"] ;
25 -> 43 ;
44 [label=<pGSK3B_N &le; 0.1882<br/>gini = 0.7186<br/>samples = 161<br/>value = [0, 3, 15, 55, 0, 0, 53, 35]<br/>class = 3>, fillcolor="#39e5ac05"] ;
2 -> 44 ;
45 [label=<CaNA_N &le; 1.3694<br/>gini = 0.6586<br/>samples = 125<br/>value = [0, 3, 11, 49, 0, 0, 52, 10]<br/>class = 6>, fillcolor="#d739e50a"] ;
44 -> 45 ;
46 [label=<DYRK1A_N &le; 0.3006<br/>gini = 0.2355<br/>samples = 22<br/>value = [0, 3, 0, 19, 0, 0, 0, 0]<br/>class = 3>, fillcolor="#39e5acd7"] ;
45 -> 46 ;
47 [label=<gini = 0.0<br/>samples = 3<br/>value = [0, 3, 0, 0, 0, 0, 0, 0]<br/>class = 1>, fillcolor="#c8e539ff"] ;
46 -> 47 ;
48 [label=<gini = 0.0<br/>samples = 19<br/>value = [0, 0, 0, 19, 0, 0, 0, 0]<br/>class = 3>, fillcolor="#39e5acff"] ;
46 -> 48 ;
49 [label=<pNUMB_N &le; 0.3556<br/>gini = 0.6395<br/>samples = 103<br/>value = [0, 0, 11, 30, 0, 0, 52, 10]<br/>class = 6>, fillcolor="#d739e54d"] ;
45 -> 49 ;
50 [label=<CDK5_N &le; 0.3149<br/>gini = 0.6569<br/>samples = 46<br/>value = [0, 0, 10, 23, 0, 0, 9, 4]<br/>class = 3>, fillcolor="#39e5ac5c"] ;
49 -> 50 ;
51 [label=<GFAP_N &le; 0.1122<br/>gini = 0.7229<br/>samples = 29<br/>value = [0, 0, 10, 6, 0, 0, 9, 4]<br/>class = 2>, fillcolor="#47e5390d"] ;
50 -> 51 ;
52 [label=<gini = 0.0<br/>samples = 7<br/>value = [0, 0, 0, 0, 0, 0, 7, 0]<br/>class = 6>, fillcolor="#d739e5ff"] ;
51 -> 52 ;
53 [label=<S6_N &le; 0.5149<br/>gini = 0.6777<br/>samples = 22<br/>value = [0, 0, 10, 6, 0, 0, 2, 4]<br/>class = 2>, fillcolor="#47e53940"] ;
51 -> 53 ;
54 [label=<pNUMB_N &le; 0.3262<br/>gini = 0.48<br/>samples = 15<br/>value = [0, 0, 10, 0, 0, 0, 1, 4]<br/>class = 2>, fillcolor="#47e5398b"] ;
53 -> 54 ;
55 [label=<gini = 0.0<br/>samples = 7<br/>value = [0, 0, 7, 0, 0, 0, 0, 0]<br/>class = 2>, fillcolor="#47e539ff"] ;
54 -> 55 ;
56 [label=<pERK_N &le; 0.6309<br/>gini = 0.5938<br/>samples = 8<br/>value = [0, 0, 3, 0, 0, 0, 1, 4]<br/>class = 7>, fillcolor="#e5397233"] ;
54 -> 56 ;
57 [label=<gini = 0.0<br/>samples = 4<br/>value = [0, 0, 0, 0, 0, 0, 0, 4]<br/>class = 7>, fillcolor="#e53972ff"] ;
56 -> 57 ;
58 [label=<DYRK1A_N &le; 0.5334<br/>gini = 0.375<br/>samples = 4<br/>value = [0, 0, 3, 0, 0, 0, 1, 0]<br/>class = 2>, fillcolor="#47e539aa"] ;
56 -> 58 ;
59 [label=<gini = 0.0<br/>samples = 3<br/>value = [0, 0, 3, 0, 0, 0, 0, 0]<br/>class = 2>, fillcolor="#47e539ff"] ;
58 -> 59 ;
60 [label=<gini = 0.0<br/>samples = 1<br/>value = [0, 0, 0, 0, 0, 0, 1, 0]<br/>class = 6>, fillcolor="#d739e5ff"] ;
58 -> 60 ;
61 [label=<BRAF_N &le; 0.469<br/>gini = 0.2449<br/>samples = 7<br/>value = [0, 0, 0, 6, 0, 0, 1, 0]<br/>class = 3>, fillcolor="#39e5acd4"] ;
53 -> 61 ;
62 [label=<gini = 0.0<br/>samples = 6<br/>value = [0, 0, 0, 6, 0, 0, 0, 0]<br/>class = 3>, fillcolor="#39e5acff"] ;
61 -> 62 ;
63 [label=<gini = 0.0<br/>samples = 1<br/>value = [0, 0, 0, 0, 0, 0, 1, 0]<br/>class = 6>, fillcolor="#d739e5ff"] ;
61 -> 63 ;
64 [label=<gini = 0.0<br/>samples = 17<br/>value = [0, 0, 0, 17, 0, 0, 0, 0]<br/>class = 3>, fillcolor="#39e5acff"] ;
50 -> 64 ;
65 [label=<CaNA_N &le; 1.7867<br/>gini = 0.4044<br/>samples = 57<br/>value = [0, 0, 1, 7, 0, 0, 43, 6]<br/>class = 6>, fillcolor="#d739e5b8"] ;
49 -> 65 ;
66 [label=<S6_N &le; 0.6214<br/>gini = 0.2456<br/>samples = 50<br/>value = [0, 0, 0, 1, 0, 0, 43, 6]<br/>class = 6>, fillcolor="#d739e5d6"] ;
65 -> 66 ;
67 [label=<pERK_N &le; 0.4819<br/>gini = 0.0868<br/>samples = 44<br/>value = [0, 0, 0, 0, 0, 0, 42, 2]<br/>class = 6>, fillcolor="#d739e5f3"] ;
66 -> 67 ;
68 [label=<gini = 0.0<br/>samples = 2<br/>value = [0, 0, 0, 0, 0, 0, 0, 2]<br/>class = 7>, fillcolor="#e53972ff"] ;
67 -> 68 ;
69 [label=<gini = 0.0<br/>samples = 42<br/>value = [0, 0, 0, 0, 0, 0, 42, 0]<br/>class = 6>, fillcolor="#d739e5ff"] ;
67 -> 69 ;
70 [label=<pNUMB_N &le; 0.4332<br/>gini = 0.5<br/>samples = 6<br/>value = [0, 0, 0, 1, 0, 0, 1, 4]<br/>class = 7>, fillcolor="#e5397299"] ;
66 -> 70 ;
71 [label=<DYRK1A_N &le; 0.4163<br/>gini = 0.5<br/>samples = 2<br/>value = [0, 0, 0, 1, 0, 0, 1, 0]<br/>class = 3>, fillcolor="#39e5ac00"] ;
70 -> 71 ;
72 [label=<gini = 0.0<br/>samples = 1<br/>value = [0, 0, 0, 1, 0, 0, 0, 0]<br/>class = 3>, fillcolor="#39e5acff"] ;
71 -> 72 ;
73 [label=<gini = 0.0<br/>samples = 1<br/>value = [0, 0, 0, 0, 0, 0, 1, 0]<br/>class = 6>, fillcolor="#d739e5ff"] ;
71 -> 73 ;
74 [label=<gini = 0.0<br/>samples = 4<br/>value = [0, 0, 0, 0, 0, 0, 0, 4]<br/>class = 7>, fillcolor="#e53972ff"] ;
70 -> 74 ;
75 [label=<DYRK1A_N &le; 0.5247<br/>gini = 0.2449<br/>samples = 7<br/>value = [0, 0, 1, 6, 0, 0, 0, 0]<br/>class = 3>, fillcolor="#39e5acd4"] ;
65 -> 75 ;
76 [label=<gini = 0.0<br/>samples = 6<br/>value = [0, 0, 0, 6, 0, 0, 0, 0]<br/>class = 3>, fillcolor="#39e5acff"] ;
75 -> 76 ;
77 [label=<gini = 0.0<br/>samples = 1<br/>value = [0, 0, 1, 0, 0, 0, 0, 0]<br/>class = 2>, fillcolor="#47e539ff"] ;
75 -> 77 ;
78 [label=<BRAF_N &le; 0.3359<br/>gini = 0.4769<br/>samples = 36<br/>value = [0, 0, 4, 6, 0, 0, 1, 25]<br/>class = 7>, fillcolor="#e53972a2"] ;
44 -> 78 ;
79 [label=<gini = 0.0<br/>samples = 14<br/>value = [0, 0, 0, 0, 0, 0, 0, 14]<br/>class = 7>, fillcolor="#e53972ff"] ;
78 -> 79 ;
80 [label=<pNUMB_N &le; 0.4258<br/>gini = 0.6405<br/>samples = 22<br/>value = [0, 0, 4, 6, 0, 0, 1, 11]<br/>class = 7>, fillcolor="#e5397250"] ;
78 -> 80 ;
81 [label=<S6_N &le; 0.6186<br/>gini = 0.6111<br/>samples = 12<br/>value = [0, 0, 4, 6, 0, 0, 0, 2]<br/>class = 3>, fillcolor="#39e5ac40"] ;
80 -> 81 ;
82 [label=<CDK5_N &le; 0.3374<br/>gini = 0.4444<br/>samples = 6<br/>value = [0, 0, 4, 0, 0, 0, 0, 2]<br/>class = 2>, fillcolor="#47e5397f"] ;
81 -> 82 ;
83 [label=<gini = 0.0<br/>samples = 4<br/>value = [0, 0, 4, 0, 0, 0, 0, 0]<br/>class = 2>, fillcolor="#47e539ff"] ;
82 -> 83 ;
84 [label=<gini = 0.0<br/>samples = 2<br/>value = [0, 0, 0, 0, 0, 0, 0, 2]<br/>class = 7>, fillcolor="#e53972ff"] ;
82 -> 84 ;
85 [label=<gini = 0.0<br/>samples = 6<br/>value = [0, 0, 0, 6, 0, 0, 0, 0]<br/>class = 3>, fillcolor="#39e5acff"] ;
81 -> 85 ;
86 [label=<BRAF_N &le; 0.3782<br/>gini = 0.18<br/>samples = 10<br/>value = [0, 0, 0, 0, 0, 0, 1, 9]<br/>class = 7>, fillcolor="#e53972e3"] ;
80 -> 86 ;
87 [label=<gini = 0.0<br/>samples = 1<br/>value = [0, 0, 0, 0, 0, 0, 1, 0]<br/>class = 6>, fillcolor="#d739e5ff"] ;
86 -> 87 ;
88 [label=<gini = 0.0<br/>samples = 9<br/>value = [0, 0, 0, 0, 0, 0, 0, 9]<br/>class = 7>, fillcolor="#e53972ff"] ;
86 -> 88 ;
89 [label=<pNUMB_N &le; 0.3897<br/>gini = 0.6376<br/>samples = 133<br/>value = [0, 0, 69, 25, 0, 0, 31, 8]<br/>class = 2>, fillcolor="#47e5395f"] ;
1 -> 89 ;
90 [label=<BRAF_N &le; 0.4418<br/>gini = 0.4695<br/>samples = 91<br/>value = [0, 0, 63, 18, 0, 0, 10, 0]<br/>class = 2>, fillcolor="#47e5399d"] ;
89 -> 90 ;
91 [label=<gini = 0.0<br/>samples = 8<br/>value = [0, 0, 0, 8, 0, 0, 0, 0]<br/>class = 3>, fillcolor="#39e5acff"] ;
90 -> 91 ;
92 [label=<BRAF_N &le; 0.7265<br/>gini = 0.3948<br/>samples = 83<br/>value = [0, 0, 63, 10, 0, 0, 10, 0]<br/>class = 2>, fillcolor="#47e539b9"] ;
90 -> 92 ;
93 [label=<DYRK1A_N &le; 0.6202<br/>gini = 0.3075<br/>samples = 72<br/>value = [0, 0, 59, 3, 0, 0, 10, 0]<br/>class = 2>, fillcolor="#47e539ca"] ;
92 -> 93 ;
94 [label=<CDK5_N &le; 0.2985<br/>gini = 0.4608<br/>samples = 25<br/>value = [0, 0, 16, 0, 0, 0, 9, 0]<br/>class = 2>, fillcolor="#47e53970"] ;
93 -> 94 ;
95 [label=<ITSN1_N &le; 0.697<br/>gini = 0.1327<br/>samples = 14<br/>value = [0, 0, 13, 0, 0, 0, 1, 0]<br/>class = 2>, fillcolor="#47e539eb"] ;
94 -> 95 ;
96 [label=<gini = 0.0<br/>samples = 1<br/>value = [0, 0, 0, 0, 0, 0, 1, 0]<br/>class = 6>, fillcolor="#d739e5ff"] ;
95 -> 96 ;
97 [label=<gini = 0.0<br/>samples = 13<br/>value = [0, 0, 13, 0, 0, 0, 0, 0]<br/>class = 2>, fillcolor="#47e539ff"] ;
95 -> 97 ;
98 [label=<SOD1_N &le; 0.3407<br/>gini = 0.3967<br/>samples = 11<br/>value = [0, 0, 3, 0, 0, 0, 8, 0]<br/>class = 6>, fillcolor="#d739e59f"] ;
94 -> 98 ;
99 [label=<CaNA_N &le; 1.7427<br/>gini = 0.1975<br/>samples = 9<br/>value = [0, 0, 1, 0, 0, 0, 8, 0]<br/>class = 6>, fillcolor="#d739e5df"] ;
98 -> 99 ;
100 [label=<gini = 0.0<br/>samples = 8<br/>value = [0, 0, 0, 0, 0, 0, 8, 0]<br/>class = 6>, fillcolor="#d739e5ff"] ;
99 -> 100 ;
101 [label=<gini = 0.0<br/>samples = 1<br/>value = [0, 0, 1, 0, 0, 0, 0, 0]<br/>class = 2>, fillcolor="#47e539ff"] ;
99 -> 101 ;
102 [label=<gini = 0.0<br/>samples = 2<br/>value = [0, 0, 2, 0, 0, 0, 0, 0]<br/>class = 2>, fillcolor="#47e539ff"] ;
98 -> 102 ;
103 [label=<GFAP_N &le; 0.1218<br/>gini = 0.1584<br/>samples = 47<br/>value = [0, 0, 43, 3, 0, 0, 1, 0]<br/>class = 2>, fillcolor="#47e539e8"] ;
93 -> 103 ;
104 [label=<ITSN1_N &le; 0.7229<br/>gini = 0.0454<br/>samples = 43<br/>value = [0, 0, 42, 0, 0, 0, 1, 0]<br/>class = 2>, fillcolor="#47e539f9"] ;
103 -> 104 ;
105 [label=<SOD1_N &le; 0.3027<br/>gini = 0.5<br/>samples = 2<br/>value = [0, 0, 1, 0, 0, 0, 1, 0]<br/>class = 2>, fillcolor="#47e53900"] ;
104 -> 105 ;
106 [label=<gini = 0.0<br/>samples = 1<br/>value = [0, 0, 1, 0, 0, 0, 0, 0]<br/>class = 2>, fillcolor="#47e539ff"] ;
105 -> 106 ;
107 [label=<gini = 0.0<br/>samples = 1<br/>value = [0, 0, 0, 0, 0, 0, 1, 0]<br/>class = 6>, fillcolor="#d739e5ff"] ;
105 -> 107 ;
108 [label=<gini = 0.0<br/>samples = 41<br/>value = [0, 0, 41, 0, 0, 0, 0, 0]<br/>class = 2>, fillcolor="#47e539ff"] ;
104 -> 108 ;
109 [label=<BRAF_N &le; 0.6396<br/>gini = 0.375<br/>samples = 4<br/>value = [0, 0, 1, 3, 0, 0, 0, 0]<br/>class = 3>, fillcolor="#39e5acaa"] ;
103 -> 109 ;
110 [label=<gini = 0.0<br/>samples = 1<br/>value = [0, 0, 1, 0, 0, 0, 0, 0]<br/>class = 2>, fillcolor="#47e539ff"] ;
109 -> 110 ;
111 [label=<gini = 0.0<br/>samples = 3<br/>value = [0, 0, 0, 3, 0, 0, 0, 0]<br/>class = 3>, fillcolor="#39e5acff"] ;
109 -> 111 ;
112 [label=<pNUMB_N &le; 0.3226<br/>gini = 0.4628<br/>samples = 11<br/>value = [0, 0, 4, 7, 0, 0, 0, 0]<br/>class = 3>, fillcolor="#39e5ac6d"] ;
92 -> 112 ;
113 [label=<gini = 0.0<br/>samples = 4<br/>value = [0, 0, 4, 0, 0, 0, 0, 0]<br/>class = 2>, fillcolor="#47e539ff"] ;
112 -> 113 ;
114 [label=<gini = 0.0<br/>samples = 7<br/>value = [0, 0, 0, 7, 0, 0, 0, 0]<br/>class = 3>, fillcolor="#39e5acff"] ;
112 -> 114 ;
115 [label=<SOD1_N &le; 0.3153<br/>gini = 0.6655<br/>samples = 42<br/>value = [0, 0, 6, 7, 0, 0, 21, 8]<br/>class = 6>, fillcolor="#d739e562"] ;
89 -> 115 ;
116 [label=<gini = 0.0<br/>samples = 4<br/>value = [0, 0, 0, 4, 0, 0, 0, 0]<br/>class = 3>, fillcolor="#39e5acff"] ;
115 -> 116 ;
117 [label=<pGSK3B_N &le; 0.1952<br/>gini = 0.6191<br/>samples = 38<br/>value = [0, 0, 6, 3, 0, 0, 21, 8]<br/>class = 6>, fillcolor="#d739e56f"] ;
115 -> 117 ;
118 [label=<SOD1_N &le; 0.3859<br/>gini = 0.512<br/>samples = 31<br/>value = [0, 0, 1, 2, 0, 0, 20, 8]<br/>class = 6>, fillcolor="#d739e585"] ;
117 -> 118 ;
119 [label=<pNUMB_N &le; 0.543<br/>gini = 0.3438<br/>samples = 24<br/>value = [0, 0, 1, 0, 0, 0, 19, 4]<br/>class = 6>, fillcolor="#d739e5bf"] ;
118 -> 119 ;
120 [label=<pERK_N &le; 0.81<br/>gini = 0.2438<br/>samples = 22<br/>value = [0, 0, 1, 0, 0, 0, 19, 2]<br/>class = 6>, fillcolor="#d739e5d9"] ;
119 -> 120 ;
121 [label=<CDK5_N &le; 0.3117<br/>gini = 0.5<br/>samples = 2<br/>value = [0, 0, 1, 0, 0, 0, 0, 1]<br/>class = 2>, fillcolor="#47e53900"] ;
120 -> 121 ;
122 [label=<gini = 0.0<br/>samples = 1<br/>value = [0, 0, 1, 0, 0, 0, 0, 0]<br/>class = 2>, fillcolor="#47e539ff"] ;
121 -> 122 ;
123 [label=<gini = 0.0<br/>samples = 1<br/>value = [0, 0, 0, 0, 0, 0, 0, 1]<br/>class = 7>, fillcolor="#e53972ff"] ;
121 -> 123 ;
124 [label=<pNUMB_N &le; 0.5065<br/>gini = 0.095<br/>samples = 20<br/>value = [0, 0, 0, 0, 0, 0, 19, 1]<br/>class = 6>, fillcolor="#d739e5f2"] ;
120 -> 124 ;
125 [label=<gini = 0.0<br/>samples = 17<br/>value = [0, 0, 0, 0, 0, 0, 17, 0]<br/>class = 6>, fillcolor="#d739e5ff"] ;
124 -> 125 ;
126 [label=<GFAP_N &le; 0.1304<br/>gini = 0.4444<br/>samples = 3<br/>value = [0, 0, 0, 0, 0, 0, 2, 1]<br/>class = 6>, fillcolor="#d739e57f"] ;
124 -> 126 ;
127 [label=<gini = 0.0<br/>samples = 2<br/>value = [0, 0, 0, 0, 0, 0, 2, 0]<br/>class = 6>, fillcolor="#d739e5ff"] ;
126 -> 127 ;
128 [label=<gini = 0.0<br/>samples = 1<br/>value = [0, 0, 0, 0, 0, 0, 0, 1]<br/>class = 7>, fillcolor="#e53972ff"] ;
126 -> 128 ;
129 [label=<gini = 0.0<br/>samples = 2<br/>value = [0, 0, 0, 0, 0, 0, 0, 2]<br/>class = 7>, fillcolor="#e53972ff"] ;
119 -> 129 ;
130 [label=<pERK_N &le; 0.9005<br/>gini = 0.5714<br/>samples = 7<br/>value = [0, 0, 0, 2, 0, 0, 1, 4]<br/>class = 7>, fillcolor="#e5397266"] ;
118 -> 130 ;
131 [label=<GFAP_N &le; 0.1257<br/>gini = 0.4444<br/>samples = 3<br/>value = [0, 0, 0, 2, 0, 0, 1, 0]<br/>class = 3>, fillcolor="#39e5ac7f"] ;
130 -> 131 ;
132 [label=<gini = 0.0<br/>samples = 2<br/>value = [0, 0, 0, 2, 0, 0, 0, 0]<br/>class = 3>, fillcolor="#39e5acff"] ;
131 -> 132 ;
133 [label=<gini = 0.0<br/>samples = 1<br/>value = [0, 0, 0, 0, 0, 0, 1, 0]<br/>class = 6>, fillcolor="#d739e5ff"] ;
131 -> 133 ;
134 [label=<gini = 0.0<br/>samples = 4<br/>value = [0, 0, 0, 0, 0, 0, 0, 4]<br/>class = 7>, fillcolor="#e53972ff"] ;
130 -> 134 ;
135 [label=<ITSN1_N &le; 1.0033<br/>gini = 0.449<br/>samples = 7<br/>value = [0, 0, 5, 1, 0, 0, 1, 0]<br/>class = 2>, fillcolor="#47e539aa"] ;
117 -> 135 ;
136 [label=<ITSN1_N &le; 0.8826<br/>gini = 0.5<br/>samples = 2<br/>value = [0, 0, 0, 1, 0, 0, 1, 0]<br/>class = 3>, fillcolor="#39e5ac00"] ;
135 -> 136 ;
137 [label=<gini = 0.0<br/>samples = 1<br/>value = [0, 0, 0, 0, 0, 0, 1, 0]<br/>class = 6>, fillcolor="#d739e5ff"] ;
136 -> 137 ;
138 [label=<gini = 0.0<br/>samples = 1<br/>value = [0, 0, 0, 1, 0, 0, 0, 0]<br/>class = 3>, fillcolor="#39e5acff"] ;
136 -> 138 ;
139 [label=<gini = 0.0<br/>samples = 5<br/>value = [0, 0, 5, 0, 0, 0, 0, 0]<br/>class = 2>, fillcolor="#47e539ff"] ;
135 -> 139 ;
140 [label=<S6_N &le; 0.4201<br/>gini = 0.7521<br/>samples = 439<br/>value = [107, 105, 0, 0, 122, 102, 1, 2]<br/>class = 4>, fillcolor="#399de50c"] ;
0 -> 140 [labeldistance=2.5, labelangle=-45, headlabel="False"] ;
141 [label=<SOD1_N &le; 0.8105<br/>gini = 0.7103<br/>samples = 322<br/>value = [84, 29, 0, 0, 120, 88, 1, 0]<br/>class = 4>, fillcolor="#399de523"] ;
140 -> 141 ;
142 [label=<ITSN1_N &le; 0.5127<br/>gini = 0.6409<br/>samples = 228<br/>value = [56, 29, 0, 0, 119, 23, 1, 0]<br/>class = 4>, fillcolor="#399de55d"] ;
141 -> 142 ;
143 [label=<CaNA_N &le; 1.1872<br/>gini = 0.4243<br/>samples = 141<br/>value = [6, 8, 0, 0, 104, 23, 0, 0]<br/>class = 4>, fillcolor="#399de5af"] ;
142 -> 143 ;
144 [label=<pNUMB_N &le; 0.4137<br/>gini = 0.3383<br/>samples = 123<br/>value = [5, 8, 0, 0, 99, 11, 0, 0]<br/>class = 4>, fillcolor="#399de5c8"] ;
143 -> 144 ;
145 [label=<pERK_N &le; 0.3091<br/>gini = 0.2378<br/>samples = 113<br/>value = [2, 2, 0, 0, 98, 11, 0, 0]<br/>class = 4>, fillcolor="#399de5da"] ;
144 -> 145 ;
146 [label=<GFAP_N &le; 0.1125<br/>gini = 0.5434<br/>samples = 28<br/>value = [2, 1, 0, 0, 17, 8, 0, 0]<br/>class = 4>, fillcolor="#399de573"] ;
145 -> 146 ;
147 [label=<gini = 0.0<br/>samples = 15<br/>value = [0, 0, 0, 0, 15, 0, 0, 0]<br/>class = 4>, fillcolor="#399de5ff"] ;
146 -> 147 ;
148 [label=<GFAP_N &le; 0.1301<br/>gini = 0.568<br/>samples = 13<br/>value = [2, 1, 0, 0, 2, 8, 0, 0]<br/>class = 5>, fillcolor="#5639e58b"] ;
146 -> 148 ;
149 [label=<CaNA_N &le; 0.8519<br/>gini = 0.1975<br/>samples = 9<br/>value = [0, 1, 0, 0, 0, 8, 0, 0]<br/>class = 5>, fillcolor="#5639e5df"] ;
148 -> 149 ;
150 [label=<gini = 0.0<br/>samples = 1<br/>value = [0, 1, 0, 0, 0, 0, 0, 0]<br/>class = 1>, fillcolor="#c8e539ff"] ;
149 -> 150 ;
151 [label=<gini = 0.0<br/>samples = 8<br/>value = [0, 0, 0, 0, 0, 8, 0, 0]<br/>class = 5>, fillcolor="#5639e5ff"] ;
149 -> 151 ;
152 [label=<DYRK1A_N &le; 0.2441<br/>gini = 0.5<br/>samples = 4<br/>value = [2, 0, 0, 0, 2, 0, 0, 0]<br/>class = 0>, fillcolor="#e5813900"] ;
148 -> 152 ;
153 [label=<gini = 0.0<br/>samples = 2<br/>value = [0, 0, 0, 0, 2, 0, 0, 0]<br/>class = 4>, fillcolor="#399de5ff"] ;
152 -> 153 ;
154 [label=<gini = 0.0<br/>samples = 2<br/>value = [2, 0, 0, 0, 0, 0, 0, 0]<br/>class = 0>, fillcolor="#e58139ff"] ;
152 -> 154 ;
155 [label=<S6_N &le; 0.2263<br/>gini = 0.0905<br/>samples = 85<br/>value = [0, 1, 0, 0, 81, 3, 0, 0]<br/>class = 4>, fillcolor="#399de5f3"] ;
145 -> 155 ;
156 [label=<pNUMB_N &le; 0.3671<br/>gini = 0.4898<br/>samples = 7<br/>value = [0, 0, 0, 0, 4, 3, 0, 0]<br/>class = 4>, fillcolor="#399de540"] ;
155 -> 156 ;
157 [label=<gini = 0.0<br/>samples = 3<br/>value = [0, 0, 0, 0, 0, 3, 0, 0]<br/>class = 5>, fillcolor="#5639e5ff"] ;
156 -> 157 ;
158 [label=<gini = 0.0<br/>samples = 4<br/>value = [0, 0, 0, 0, 4, 0, 0, 0]<br/>class = 4>, fillcolor="#399de5ff"] ;
156 -> 158 ;
159 [label=<DYRK1A_N &le; 0.3339<br/>gini = 0.0253<br/>samples = 78<br/>value = [0, 1, 0, 0, 77, 0, 0, 0]<br/>class = 4>, fillcolor="#399de5fc"] ;
155 -> 159 ;
160 [label=<gini = 0.0<br/>samples = 75<br/>value = [0, 0, 0, 0, 75, 0, 0, 0]<br/>class = 4>, fillcolor="#399de5ff"] ;
159 -> 160 ;
161 [label=<ITSN1_N &le; 0.4837<br/>gini = 0.4444<br/>samples = 3<br/>value = [0, 1, 0, 0, 2, 0, 0, 0]<br/>class = 4>, fillcolor="#399de57f"] ;
159 -> 161 ;
162 [label=<gini = 0.0<br/>samples = 1<br/>value = [0, 1, 0, 0, 0, 0, 0, 0]<br/>class = 1>, fillcolor="#c8e539ff"] ;
161 -> 162 ;
163 [label=<gini = 0.0<br/>samples = 2<br/>value = [0, 0, 0, 0, 2, 0, 0, 0]<br/>class = 4>, fillcolor="#399de5ff"] ;
161 -> 163 ;
164 [label=<BRAF_N &le; 0.2634<br/>gini = 0.54<br/>samples = 10<br/>value = [3, 6, 0, 0, 1, 0, 0, 0]<br/>class = 1>, fillcolor="#c8e5396d"] ;
144 -> 164 ;
165 [label=<pERK_N &le; 0.3312<br/>gini = 0.375<br/>samples = 4<br/>value = [3, 0, 0, 0, 1, 0, 0, 0]<br/>class = 0>, fillcolor="#e58139aa"] ;
164 -> 165 ;
166 [label=<gini = 0.0<br/>samples = 3<br/>value = [3, 0, 0, 0, 0, 0, 0, 0]<br/>class = 0>, fillcolor="#e58139ff"] ;
165 -> 166 ;
167 [label=<gini = 0.0<br/>samples = 1<br/>value = [0, 0, 0, 0, 1, 0, 0, 0]<br/>class = 4>, fillcolor="#399de5ff"] ;
165 -> 167 ;
168 [label=<gini = 0.0<br/>samples = 6<br/>value = [0, 6, 0, 0, 0, 0, 0, 0]<br/>class = 1>, fillcolor="#c8e539ff"] ;
164 -> 168 ;
169 [label=<GFAP_N &le; 0.126<br/>gini = 0.4753<br/>samples = 18<br/>value = [1, 0, 0, 0, 5, 12, 0, 0]<br/>class = 5>, fillcolor="#5639e589"] ;
143 -> 169 ;
170 [label=<ITSN1_N &le; 0.4991<br/>gini = 0.3378<br/>samples = 15<br/>value = [1, 0, 0, 0, 2, 12, 0, 0]<br/>class = 5>, fillcolor="#5639e5c4"] ;
169 -> 170 ;
171 [label=<BRAF_N &le; 0.2725<br/>gini = 0.2449<br/>samples = 14<br/>value = [0, 0, 0, 0, 2, 12, 0, 0]<br/>class = 5>, fillcolor="#5639e5d4"] ;
170 -> 171 ;
172 [label=<gini = 0.0<br/>samples = 9<br/>value = [0, 0, 0, 0, 0, 9, 0, 0]<br/>class = 5>, fillcolor="#5639e5ff"] ;
171 -> 172 ;
173 [label=<CDK5_N &le; 0.2979<br/>gini = 0.48<br/>samples = 5<br/>value = [0, 0, 0, 0, 2, 3, 0, 0]<br/>class = 5>, fillcolor="#5639e555"] ;
171 -> 173 ;
174 [label=<gini = 0.0<br/>samples = 2<br/>value = [0, 0, 0, 0, 2, 0, 0, 0]<br/>class = 4>, fillcolor="#399de5ff"] ;
173 -> 174 ;
175 [label=<gini = 0.0<br/>samples = 3<br/>value = [0, 0, 0, 0, 0, 3, 0, 0]<br/>class = 5>, fillcolor="#5639e5ff"] ;
173 -> 175 ;
176 [label=<gini = 0.0<br/>samples = 1<br/>value = [1, 0, 0, 0, 0, 0, 0, 0]<br/>class = 0>, fillcolor="#e58139ff"] ;
170 -> 176 ;
177 [label=<gini = 0.0<br/>samples = 3<br/>value = [0, 0, 0, 0, 3, 0, 0, 0]<br/>class = 4>, fillcolor="#399de5ff"] ;
169 -> 177 ;
178 [label=<pGSK3B_N &le; 0.162<br/>gini = 0.5816<br/>samples = 87<br/>value = [50, 21, 0, 0, 15, 0, 1, 0]<br/>class = 0>, fillcolor="#e5813970"] ;
142 -> 178 ;
179 [label=<CDK5_N &le; 0.2437<br/>gini = 0.4048<br/>samples = 64<br/>value = [47, 2, 0, 0, 15, 0, 0, 0]<br/>class = 0>, fillcolor="#e58139a7"] ;
178 -> 179 ;
180 [label=<pGSK3B_N &le; 0.1442<br/>gini = 0.375<br/>samples = 8<br/>value = [0, 2, 0, 0, 6, 0, 0, 0]<br/>class = 4>, fillcolor="#399de5aa"] ;
179 -> 180 ;
181 [label=<gini = 0.0<br/>samples = 6<br/>value = [0, 0, 0, 0, 6, 0, 0, 0]<br/>class = 4>, fillcolor="#399de5ff"] ;
180 -> 181 ;
182 [label=<gini = 0.0<br/>samples = 2<br/>value = [0, 2, 0, 0, 0, 0, 0, 0]<br/>class = 1>, fillcolor="#c8e539ff"] ;
180 -> 182 ;
183 [label=<SOD1_N &le; 0.695<br/>gini = 0.2698<br/>samples = 56<br/>value = [47, 0, 0, 0, 9, 0, 0, 0]<br/>class = 0>, fillcolor="#e58139ce"] ;
179 -> 183 ;
184 [label=<S6_N &le; 0.2776<br/>gini = 0.1172<br/>samples = 48<br/>value = [45, 0, 0, 0, 3, 0, 0, 0]<br/>class = 0>, fillcolor="#e58139ee"] ;
183 -> 184 ;
185 [label=<CaNA_N &le; 0.9508<br/>gini = 0.4444<br/>samples = 3<br/>value = [1, 0, 0, 0, 2, 0, 0, 0]<br/>class = 4>, fillcolor="#399de57f"] ;
184 -> 185 ;
186 [label=<gini = 0.0<br/>samples = 1<br/>value = [1, 0, 0, 0, 0, 0, 0, 0]<br/>class = 0>, fillcolor="#e58139ff"] ;
185 -> 186 ;
187 [label=<gini = 0.0<br/>samples = 2<br/>value = [0, 0, 0, 0, 2, 0, 0, 0]<br/>class = 4>, fillcolor="#399de5ff"] ;
185 -> 187 ;
188 [label=<pGSK3B_N &le; 0.1203<br/>gini = 0.0435<br/>samples = 45<br/>value = [44, 0, 0, 0, 1, 0, 0, 0]<br/>class = 0>, fillcolor="#e58139f9"] ;
184 -> 188 ;
189 [label=<gini = 0.0<br/>samples = 1<br/>value = [0, 0, 0, 0, 1, 0, 0, 0]<br/>class = 4>, fillcolor="#399de5ff"] ;
188 -> 189 ;
190 [label=<gini = 0.0<br/>samples = 44<br/>value = [44, 0, 0, 0, 0, 0, 0, 0]<br/>class = 0>, fillcolor="#e58139ff"] ;
188 -> 190 ;
191 [label=<BRAF_N &le; 0.3062<br/>gini = 0.375<br/>samples = 8<br/>value = [2, 0, 0, 0, 6, 0, 0, 0]<br/>class = 4>, fillcolor="#399de5aa"] ;
183 -> 191 ;
192 [label=<gini = 0.0<br/>samples = 6<br/>value = [0, 0, 0, 0, 6, 0, 0, 0]<br/>class = 4>, fillcolor="#399de5ff"] ;
191 -> 192 ;
193 [label=<gini = 0.0<br/>samples = 2<br/>value = [2, 0, 0, 0, 0, 0, 0, 0]<br/>class = 0>, fillcolor="#e58139ff"] ;
191 -> 193 ;
194 [label=<GFAP_N &le; 0.1329<br/>gini = 0.2987<br/>samples = 23<br/>value = [3, 19, 0, 0, 0, 0, 1, 0]<br/>class = 1>, fillcolor="#c8e539cc"] ;
178 -> 194 ;
195 [label=<gini = 0.0<br/>samples = 19<br/>value = [0, 19, 0, 0, 0, 0, 0, 0]<br/>class = 1>, fillcolor="#c8e539ff"] ;
194 -> 195 ;
196 [label=<GFAP_N &le; 0.1349<br/>gini = 0.375<br/>samples = 4<br/>value = [3, 0, 0, 0, 0, 0, 1, 0]<br/>class = 0>, fillcolor="#e58139aa"] ;
194 -> 196 ;
197 [label=<gini = 0.0<br/>samples = 1<br/>value = [0, 0, 0, 0, 0, 0, 1, 0]<br/>class = 6>, fillcolor="#d739e5ff"] ;
196 -> 197 ;
198 [label=<gini = 0.0<br/>samples = 3<br/>value = [3, 0, 0, 0, 0, 0, 0, 0]<br/>class = 0>, fillcolor="#e58139ff"] ;
196 -> 198 ;
199 [label=<pNUMB_N &le; 0.3284<br/>gini = 0.433<br/>samples = 94<br/>value = [28, 0, 0, 0, 1, 65, 0, 0]<br/>class = 5>, fillcolor="#5639e58f"] ;
141 -> 199 ;
200 [label=<BRAF_N &le; 0.21<br/>gini = 0.0308<br/>samples = 64<br/>value = [1, 0, 0, 0, 0, 63, 0, 0]<br/>class = 5>, fillcolor="#5639e5fb"] ;
199 -> 200 ;
201 [label=<gini = 0.0<br/>samples = 1<br/>value = [1, 0, 0, 0, 0, 0, 0, 0]<br/>class = 0>, fillcolor="#e58139ff"] ;
200 -> 201 ;
202 [label=<gini = 0.0<br/>samples = 63<br/>value = [0, 0, 0, 0, 0, 63, 0, 0]<br/>class = 5>, fillcolor="#5639e5ff"] ;
200 -> 202 ;
203 [label=<GFAP_N &le; 0.1064<br/>gini = 0.1844<br/>samples = 30<br/>value = [27, 0, 0, 0, 1, 2, 0, 0]<br/>class = 0>, fillcolor="#e58139e4"] ;
199 -> 203 ;
204 [label=<pERK_N &le; 0.3926<br/>gini = 0.5<br/>samples = 2<br/>value = [0, 0, 0, 0, 1, 1, 0, 0]<br/>class = 4>, fillcolor="#399de500"] ;
203 -> 204 ;
205 [label=<gini = 0.0<br/>samples = 1<br/>value = [0, 0, 0, 0, 0, 1, 0, 0]<br/>class = 5>, fillcolor="#5639e5ff"] ;
204 -> 205 ;
206 [label=<gini = 0.0<br/>samples = 1<br/>value = [0, 0, 0, 0, 1, 0, 0, 0]<br/>class = 4>, fillcolor="#399de5ff"] ;
204 -> 206 ;
207 [label=<pGSK3B_N &le; 0.1451<br/>gini = 0.0689<br/>samples = 28<br/>value = [27, 0, 0, 0, 0, 1, 0, 0]<br/>class = 0>, fillcolor="#e58139f6"] ;
203 -> 207 ;
208 [label=<pGSK3B_N &le; 0.1434<br/>gini = 0.4444<br/>samples = 3<br/>value = [2, 0, 0, 0, 0, 1, 0, 0]<br/>class = 0>, fillcolor="#e581397f"] ;
207 -> 208 ;
209 [label=<gini = 0.0<br/>samples = 2<br/>value = [2, 0, 0, 0, 0, 0, 0, 0]<br/>class = 0>, fillcolor="#e58139ff"] ;
208 -> 209 ;
210 [label=<gini = 0.0<br/>samples = 1<br/>value = [0, 0, 0, 0, 0, 1, 0, 0]<br/>class = 5>, fillcolor="#5639e5ff"] ;
208 -> 210 ;
211 [label=<gini = 0.0<br/>samples = 25<br/>value = [25, 0, 0, 0, 0, 0, 0, 0]<br/>class = 0>, fillcolor="#e58139ff"] ;
207 -> 211 ;
212 [label=<CDK5_N &le; 0.3038<br/>gini = 0.5245<br/>samples = 117<br/>value = [23, 76, 0, 0, 2, 14, 0, 2]<br/>class = 1>, fillcolor="#c8e53990"] ;
140 -> 212 ;
213 [label=<SOD1_N &le; 0.7473<br/>gini = 0.6904<br/>samples = 63<br/>value = [20, 25, 0, 0, 2, 14, 0, 2]<br/>class = 1>, fillcolor="#c8e5391e"] ;
212 -> 213 ;
214 [label=<BRAF_N &le; 0.2404<br/>gini = 0.6061<br/>samples = 33<br/>value = [0, 15, 0, 0, 2, 14, 0, 2]<br/>class = 1>, fillcolor="#c8e5390d"] ;
213 -> 214 ;
215 [label=<ITSN1_N &le; 0.4784<br/>gini = 0.3875<br/>samples = 17<br/>value = [0, 2, 0, 0, 2, 13, 0, 0]<br/>class = 5>, fillcolor="#5639e5bb"] ;
214 -> 215 ;
216 [label=<SOD1_N &le; 0.4449<br/>gini = 0.1327<br/>samples = 14<br/>value = [0, 1, 0, 0, 0, 13, 0, 0]<br/>class = 5>, fillcolor="#5639e5eb"] ;
215 -> 216 ;
217 [label=<gini = 0.0<br/>samples = 1<br/>value = [0, 1, 0, 0, 0, 0, 0, 0]<br/>class = 1>, fillcolor="#c8e539ff"] ;
216 -> 217 ;
218 [label=<gini = 0.0<br/>samples = 13<br/>value = [0, 0, 0, 0, 0, 13, 0, 0]<br/>class = 5>, fillcolor="#5639e5ff"] ;
216 -> 218 ;
219 [label=<SOD1_N &le; 0.566<br/>gini = 0.4444<br/>samples = 3<br/>value = [0, 1, 0, 0, 2, 0, 0, 0]<br/>class = 4>, fillcolor="#399de57f"] ;
215 -> 219 ;
220 [label=<gini = 0.0<br/>samples = 1<br/>value = [0, 1, 0, 0, 0, 0, 0, 0]<br/>class = 1>, fillcolor="#c8e539ff"] ;
219 -> 220 ;
221 [label=<gini = 0.0<br/>samples = 2<br/>value = [0, 0, 0, 0, 2, 0, 0, 0]<br/>class = 4>, fillcolor="#399de5ff"] ;
219 -> 221 ;
222 [label=<SOD1_N &le; 0.4657<br/>gini = 0.3203<br/>samples = 16<br/>value = [0, 13, 0, 0, 0, 1, 0, 2]<br/>class = 1>, fillcolor="#c8e539c8"] ;
214 -> 222 ;
223 [label=<gini = 0.0<br/>samples = 2<br/>value = [0, 0, 0, 0, 0, 0, 0, 2]<br/>class = 7>, fillcolor="#e53972ff"] ;
222 -> 223 ;
224 [label=<CDK5_N &le; 0.2993<br/>gini = 0.1327<br/>samples = 14<br/>value = [0, 13, 0, 0, 0, 1, 0, 0]<br/>class = 1>, fillcolor="#c8e539eb"] ;
222 -> 224 ;
225 [label=<gini = 0.0<br/>samples = 13<br/>value = [0, 13, 0, 0, 0, 0, 0, 0]<br/>class = 1>, fillcolor="#c8e539ff"] ;
224 -> 225 ;
226 [label=<gini = 0.0<br/>samples = 1<br/>value = [0, 0, 0, 0, 0, 1, 0, 0]<br/>class = 5>, fillcolor="#5639e5ff"] ;
224 -> 226 ;
227 [label=<pNUMB_N &le; 0.2931<br/>gini = 0.4444<br/>samples = 30<br/>value = [20, 10, 0, 0, 0, 0, 0, 0]<br/>class = 0>, fillcolor="#e581397f"] ;
213 -> 227 ;
228 [label=<gini = 0.0<br/>samples = 7<br/>value = [0, 7, 0, 0, 0, 0, 0, 0]<br/>class = 1>, fillcolor="#c8e539ff"] ;
227 -> 228 ;
229 [label=<CaNA_N &le; 1.3266<br/>gini = 0.2268<br/>samples = 23<br/>value = [20, 3, 0, 0, 0, 0, 0, 0]<br/>class = 0>, fillcolor="#e58139d9"] ;
227 -> 229 ;
230 [label=<gini = 0.0<br/>samples = 20<br/>value = [20, 0, 0, 0, 0, 0, 0, 0]<br/>class = 0>, fillcolor="#e58139ff"] ;
229 -> 230 ;
231 [label=<gini = 0.0<br/>samples = 3<br/>value = [0, 3, 0, 0, 0, 0, 0, 0]<br/>class = 1>, fillcolor="#c8e539ff"] ;
229 -> 231 ;
232 [label=<CaNA_N &le; 1.0795<br/>gini = 0.1049<br/>samples = 54<br/>value = [3, 51, 0, 0, 0, 0, 0, 0]<br/>class = 1>, fillcolor="#c8e539f0"] ;
212 -> 232 ;
233 [label=<gini = 0.0<br/>samples = 3<br/>value = [3, 0, 0, 0, 0, 0, 0, 0]<br/>class = 0>, fillcolor="#e58139ff"] ;
232 -> 233 ;
234 [label=<gini = 0.0<br/>samples = 51<br/>value = [0, 51, 0, 0, 0, 0, 0, 0]<br/>class = 1>, fillcolor="#c8e539ff"] ;
232 -> 234 ;
}